-0.844165 -0.483354 -0.989307 -0.355211 -0.023647 -0.874463 -0.799897 0.695826 0.968248 0.623412 -0.877425 -0.970143 0.353609 
0.505095 -0.748503 -0.937331 0.337225 0.893314 0.910975 -0.86448 -0.136957 -0.619731 -0.938338 -0.947679 -0.767261 -0.79062 
-0.933325 -0.464885 -0.289284 0.749363 0.873809 0.598475 -0.0863793 -0.878918 -0.72408 0.280541 0.899379 0.16275 -0.552437 
-0.737323 0.608875 0.828139 0.815518 0.867083 -0.243527 0.916386 -0.613856 -0.21404 -0.512039 0.330874 -0.873104 0.359535 
0.484142 0.473884 0.858347 -0.476398 -0.0322382 0.864018 -0.159082 0.321082 -0.602585 -0.370208 -0.647358 0.471621 0.944825 -0.453763 0.0192231 0.703711 0.985028 -0.803634 -0.810129 0.658473 0.83182 -0.615253 -0.0883637 0.20725 0.689127 
0.740833 0.77595 0.292293 0.71605 0.761346 0.281423 -0.147126 0.902018 0.220281 0.84449 0.468667 -0.389868 -0.527822 -0.920976 0.753509 0.533578 0.337873 -0.484425 -0.85623 0.653104 0.154151 -0.85021 -0.588125 -0.269692 -0.270694 
0.15761 -0.154215 -0.704042 0.790124 0.0634667 -0.208111 -0.870379 -0.143135 0.100111 -0.0877809 -0.50488 -0.244968 0.375036 0.467952 -0.804039 -0.902138 -0.915857 -0.326526 0.130581 0.365528 -0.164379 0.122357 0.20974 -0.852626 0.137325 
-0.0652924 -0.0632753 -0.747681 0.704259 0.755511 0.318369 -0.539154 -0.109018 -0.252576 0.519174 0.495928 -0.419604 0.629644 -0.488906 -0.508644 0.173958 0.164466 0.0965142 -0.966682 -0.217609 -0.72481 -0.908938 0.756869 0.399357 -0.584954 
0.139335 -0.541837 0.672314 0.99578 0.442007 0.223875 -0.0134453 0.201887 0.0233474 -0.685234 0.848169 -0.870921 0.373087 0.0508922 -0.185431 -0.273734 0.99982 -0.780547 -0.993631 -0.26897 -0.233784 0.492736 -0.673802 -0.660479 0.0399978 
0.822809 -0.0274693 -0.517426 -0.801891 0.14361 0.892414 -0.405059 -0.746429 0.478786 -0.741276 -0.234001 -0.391634 0.962652 -0.265592 -0.135045 0.755381 -0.110703 -0.53105 0.920359 -0.443365 0.389717 0.356894 -0.987855 0.298864 0.963662 
-0.14936 -0.931308 0.0304033 -0.11697 -0.0918147 -0.808782 -0.284554 -0.0347815 0.0208532 0.756968 0.716057 -0.772081 -0.323722 0.911718 0.954393 -0.445352 0.231634 0.670348 0.0156751 -0.167902 -0.939786 -0.622026 0.0200177 0.456352 0.780058 
0.518027 -0.833008 -0.333186 0.960089 -0.902986 -0.995466 0.795925 -0.520965 -0.130052 0.867715 0.319551 0.351768 -0.351836 0.401214 -0.692226 0.503488 0.281391 0.228478 -0.967534 0.0870695 0.938239 -0.781777 0.878383 -0.195102 -0.791766 
-0.68919 -0.433962 0.442341 0.927854 -0.551242 -0.803225 0.79589 -0.656055 -0.828715 -0.964865 -0.542529 0.124566 0.8467 -0.716574 0.370722 0.16002 0.210365 -0.967466 -0.94048 -0.0523046 0.698944 -0.963569 -0.429988 0.776471 -0.639957 
0.503987 -0.421792 0.447259 0.595294 0.976313 -0.822915 -0.51041 0.706295 -0.0847917 0.668842 0.240054 -0.916316 -0.116361 -0.786722 0.801896 -0.223377 0.446039 0.189024 -0.425596 0.746261 -0.0890633 -0.985617 -0.893227 -0.817325 0.276359 
-0.264452 -0.675128 -0.576165 0.635898 -0.975089 0.00679255 -0.74069 0.492594 0.941688 0.256363 0.573937 0.0849793 0.22308 0.466369 -0.576017 0.0695103 0.371133 -0.990196 -0.582891 -0.787221 -0.287212 0.158835 -0.466132 -0.958576 0.434467 
-0.381407 -0.459732 0.553748 -0.812817 0.0697569 0.425725 0.957376 0.865234 0.500025 -0.79159 0.795875 0.730731 0.416145 0.0627048 -0.0800624 0.415542 -0.184919 -0.793748 0.74939 0.7343 0.064911 0.678548 -0.0690137 -0.698668 -0.753276 
