0.529085 -0.844071 0.193075 0.0504973 0.900231 -0.292212 0.0489008 0.274543 0.159251 0.618215 -0.0902303 0.665648 -0.0029667 
-0.161092 -0.301557 0.525036 0.950622 0.907343 -0.944777 -0.760477 -0.834261 -0.0308163 -0.0509335 0.180784 0.528287 0.321863 
-0.560379 0.90313 0.0237831 -0.85057 0.476621 0.74433 -0.322075 -0.578826 0.389598 0.954492 -0.185632 0.593666 0.463181 
-0.892998 0.167403 -0.428625 -0.544106 -0.966308 0.830194 0.593194 0.90323 0.681849 0.119501 -0.65377 -0.0380385 0.803318 
-0.115266 -0.860859 0.63443 -0.266898 0.44315 0.426497 0.638728 0.377134 -0.645482 0.33278 0.587556 -0.954617 -0.313216 -0.386089 -0.211037 -0.652382 -0.341172 0.0151509 -0.798748 -0.789543 0.75051 0.152416 0.191201 0.974961 0.205531 
0.559691 0.93895 0.60072 -0.717823 0.39029 -0.0937505 0.0173608 0.491114 -0.772542 -0.843097 0.629853 -0.330603 -0.389885 -0.0288496 -0.781303 0.919763 -0.0396274 -0.0550498 0.735905 -0.0939292 0.117925 -0.829479 0.471886 -0.102003 0.766612 
-0.93084 0.165063 0.430449 -0.0032289 -0.822809 0.448104 -0.195427 0.712307 -0.449689 0.82755 -0.78607 -0.465406 0.826747 -0.717028 0.805459 0.397146 -0.710021 0.643732 -0.461863 -0.290478 0.953132 -0.379836 0.946434 0.834882 0.781467 
-0.3295 0.467951 0.348475 0.293853 -0.372858 0.198727 0.451838 0.908804 -0.853995 -0.408183 -0.726276 -0.96584 0.0886041 -0.749986 -0.561744 0.93322 -0.525588 -0.336113 -0.777663 0.465759 0.375517 0.413863 -0.156111 0.285046 0.137484 
0.313564 0.610578 0.810564 -0.925891 0.171161 -0.348169 -0.906632 0.0752795 0.367354 0.894974 0.00606561 0.468484 0.643449 0.645629 -0.191958 -0.521478 0.765936 0.829186 0.449474 -0.965803 0.746654 0.239259 0.803515 0.103337 0.363479 
0.680072 0.0717846 0.915398 0.218976 -0.225628 0.0461026 -0.861946 -0.242573 0.959818 -0.574155 0.256066 0.725469 0.221091 0.760647 -0.21981 -0.878474 0.107333 -0.924098 0.456742 0.444059 0.854518 0.634605 0.299383 -0.103417 0.140768 
0.16033 -0.241276 -0.160255 -0.940183 -0.773991 -0.0599608 -0.0321534 -0.159278 -0.209545 -0.930772 -0.0314416 -0.113007 -0.432768 0.519806 -0.570602 -0.799423 -0.708274 -0.518104 -0.859827 -0.0924594 0.104517 -0.436831 -0.0985841 -0.936635 0.216976 
-0.7269 -0.988906 -0.215906 0.707308 -0.667878 0.385807 0.956863 0.808828 0.370759 0.249477 0.571498 0.965092 -0.0851808 -0.226723 -0.227399 -0.164401 0.290312 -0.44415 -0.718906 0.222361 -0.1675 -0.609598 0.289663 -0.295207 0.96182 
0.427798 0.14444 -0.645206 -0.379807 -0.0967988 0.827824 0.152225 0.35962 0.761767 -0.369484 -0.199478 -0.401858 -0.857844 0.156455 0.711597 -0.916622 -0.265764 0.768975 -0.344178 0.949168 -0.118116 0.347088 -0.883776 -0.712271 -0.419247 
0.618578 -0.314322 -0.352446 0.603496 -0.204736 0.892871 0.848751 -0.147987 -0.542598 -0.864635 0.635022 -0.164591 0.785615 0.86206 0.42121 -0.251867 0.0261528 -0.654281 0.487824 0.734459 -0.454168 0.287346 0.949811 0.749789 -0.58541 
-0.131284 0.518553 -0.634588 -0.532603 -0.420654 0.427791 0.54485 0.0595371 0.0654395 0.259386 -0.35277 0.681598 -0.371713 0.680085 0.0725348 -0.937762 0.294668 0.319819 0.21797 0.404771 -0.13478 -0.625354 -0.678823 -0.150924 -0.820612 
0.264159 -0.358624 -0.146135 0.308264 0.573226 0.880597 -0.0995693 0.870391 0.906551 0.0547439 0.559666 -0.314552 -0.506389 0.64736 -0.868194 0.863791 0.732833 0.181203 -0.0178294 -0.462529 0.174485 -0.538201 0.285673 -0.582524 0.952459 